digraph Tree {
node [shape=box, style="filled", color="black"] ;
0 [label="AGE <= 42.0\nmse = 281.792\nsamples = 268\nvalue = 34.582", fillcolor="#e5813965"] ;
1 [label="CEMENT <= 257.5\nmse = 203.62\nsamples = 190\nvalue = 28.891", fillcolor="#e5813950"] ;
0 -> 1 [labeldistance=2.5, labelangle=45, headlabel="True"] ;
2 [label="AGE <= 10.5\nmse = 116.499\nsamples = 100\nvalue = 22.195", fillcolor="#e5813939"] ;
1 -> 2 ;
3 [label="SUPERPLASTICIZER <= 6.95\nmse = 22.259\nsamples = 29\nvalue = 10.653", fillcolor="#e581390f"] ;
2 -> 3 ;
4 [label="AGE <= 5.0\nmse = 12.906\nsamples = 23\nvalue = 9.649", fillcolor="#e581390c"] ;
3 -> 4 ;
5 [label="WATER <= 193.45\nmse = 5.439\nsamples = 13\nvalue = 7.801", fillcolor="#e5813905"] ;
4 -> 5 ;
6 [label="mse = 4.205\nsamples = 8\nvalue = 8.838", fillcolor="#e5813909"] ;
5 -> 6 ;
7 [label="mse = 3.425\nsamples = 5\nvalue = 6.303", fillcolor="#e5813900"] ;
5 -> 7 ;
8 [label="mse = 12.028\nsamples = 10\nvalue = 12.189", fillcolor="#e5813915"] ;
4 -> 8 ;
9 [label="mse = 39.126\nsamples = 6\nvalue = 15.425", fillcolor="#e5813920"] ;
3 -> 9 ;
10 [label="BLAST_FURNACE_SLAG <= 163.15\nmse = 74.5\nsamples = 71\nvalue = 27.204", fillcolor="#e581394a"] ;
2 -> 10 ;
11 [label="WATER <= 160.65\nmse = 64.899\nsamples = 54\nvalue = 25.104", fillcolor="#e5813943"] ;
10 -> 11 ;
12 [label="AGE <= 21.0\nmse = 74.48\nsamples = 13\nvalue = 33.153", fillcolor="#e581395f"] ;
11 -> 12 ;
13 [label="mse = 43.859\nsamples = 8\nvalue = 29.533", fillcolor="#e5813953"] ;
12 -> 13 ;
14 [label="mse = 57.061\nsamples = 5\nvalue = 40.395", fillcolor="#e5813979"] ;
12 -> 14 ;
15 [label="FLY_ASH <= 172.95\nmse = 39.796\nsamples = 41\nvalue = 22.909", fillcolor="#e581393b"] ;
11 -> 15 ;
16 [label="mse = 34.705\nsamples = 37\nvalue = 23.801", fillcolor="#e581393e"] ;
15 -> 16 ;
17 [label="mse = 3.213\nsamples = 4\nvalue = 13.99", fillcolor="#e581391b"] ;
15 -> 17 ;
18 [label="BLAST_FURNACE_SLAG <= 236.4\nmse = 30.065\nsamples = 17\nvalue = 35.22", fillcolor="#e5813967"] ;
10 -> 18 ;
19 [label="mse = 32.444\nsamples = 11\nvalue = 31.689", fillcolor="#e581395a"] ;
18 -> 19 ;
20 [label="mse = 2.751\nsamples = 6\nvalue = 38.751", fillcolor="#e5813973"] ;
18 -> 20 ;
21 [label="BLAST_FURNACE_SLAG <= 19.5\nmse = 198.681\nsamples = 90\nvalue = 35.91", fillcolor="#e5813969"] ;
1 -> 21 ;
22 [label="AGE <= 21.0\nmse = 157.133\nsamples = 48\nvalue = 28.803", fillcolor="#e5813950"] ;
21 -> 22 ;
23 [label="SUPERPLASTICIZER <= 7.45\nmse = 65.033\nsamples = 22\nvalue = 20.454", fillcolor="#e5813932"] ;
22 -> 23 ;
24 [label="FINE_AGGREGATE <= 760.2\nmse = 33.639\nsamples = 18\nvalue = 18.368", fillcolor="#e581392b"] ;
23 -> 24 ;
25 [label="mse = 31.175\nsamples = 4\nvalue = 24.211", fillcolor="#e5813940"] ;
24 -> 25 ;
26 [label="mse = 16.616\nsamples = 14\nvalue = 16.142", fillcolor="#e5813923"] ;
24 -> 26 ;
27 [label="mse = 75.515\nsamples = 4\nvalue = 32.552", fillcolor="#e581395d"] ;
23 -> 27 ;
28 [label="WATER <= 176.5\nmse = 131.259\nsamples = 26\nvalue = 35.404", fillcolor="#e5813968"] ;
22 -> 28 ;
29 [label="mse = 218.443\nsamples = 4\nvalue = 53.925", fillcolor="#e58139a9"] ;
28 -> 29 ;
30 [label="CEMENT <= 315.45\nmse = 52.477\nsamples = 22\nvalue = 32.401", fillcolor="#e581395d"] ;
28 -> 30 ;
31 [label="mse = 7.34\nsamples = 7\nvalue = 25.367", fillcolor="#e5813944"] ;
30 -> 31 ;
32 [label="mse = 38.99\nsamples = 15\nvalue = 35.778", fillcolor="#e5813969"] ;
30 -> 32 ;
33 [label="FINE_AGGREGATE <= 757.85\nmse = 123.766\nsamples = 42\nvalue = 43.958", fillcolor="#e5813986"] ;
21 -> 33 ;
34 [label="AGE <= 5.0\nmse = 85.607\nsamples = 24\nvalue = 39.08", fillcolor="#e5813975"] ;
33 -> 34 ;
35 [label="mse = 12.029\nsamples = 6\nvalue = 32.054", fillcolor="#e581395c"] ;
34 -> 35 ;
36 [label="CEMENT <= 311.65\nmse = 88.279\nsamples = 18\nvalue = 41.347", fillcolor="#e581397d"] ;
34 -> 36 ;
37 [label="mse = 26.657\nsamples = 8\nvalue = 35.486", fillcolor="#e5813968"] ;
36 -> 37 ;
38 [label="mse = 78.286\nsamples = 10\nvalue = 47.599", fillcolor="#e5813993"] ;
36 -> 38 ;
39 [label="SUPERPLASTICIZER <= 12.65\nmse = 90.741\nsamples = 18\nvalue = 51.364", fillcolor="#e58139a0"] ;
33 -> 39 ;
40 [label="CEMENT <= 300.7\nmse = 64.098\nsamples = 12\nvalue = 53.842", fillcolor="#e58139a9"] ;
39 -> 40 ;
41 [label="mse = 10.889\nsamples = 4\nvalue = 44.778", fillcolor="#e5813989"] ;
40 -> 41 ;
42 [label="mse = 45.324\nsamples = 8\nvalue = 56.863", fillcolor="#e58139b4"] ;
40 -> 42 ;
43 [label="mse = 99.207\nsamples = 6\nvalue = 44.284", fillcolor="#e5813987"] ;
39 -> 43 ;
44 [label="SUPERPLASTICIZER <= 10.55\nmse = 184.018\nsamples = 78\nvalue = 49.279", fillcolor="#e5813999"] ;
0 -> 44 [labeldistance=2.5, labelangle=-45, headlabel="False"] ;
45 [label="FINE_AGGREGATE <= 796.2\nmse = 107.212\nsamples = 58\nvalue = 43.705", fillcolor="#e5813985"] ;
44 -> 45 ;
46 [label="FINE_AGGREGATE <= 602.9\nmse = 80.168\nsamples = 37\nvalue = 48.587", fillcolor="#e5813996"] ;
45 -> 46 ;
47 [label="mse = 9.415\nsamples = 6\nvalue = 37.988", fillcolor="#e5813971"] ;
46 -> 47 ;
48 [label="FINE_AGGREGATE <= 732.3\nmse = 65.819\nsamples = 31\nvalue = 50.891", fillcolor="#e581399f"] ;
46 -> 48 ;
49 [label="FINE_AGGREGATE <= 641.5\nmse = 25.702\nsamples = 15\nvalue = 55.183", fillcolor="#e58139ae"] ;
48 -> 49 ;
50 [label="mse = 22.1\nsamples = 4\nvalue = 60.552", fillcolor="#e58139c1"] ;
49 -> 50 ;
51 [label="mse = 7.446\nsamples = 11\nvalue = 52.656", fillcolor="#e58139a5"] ;
49 -> 51 ;
52 [label="SUPERPLASTICIZER <= 6.1\nmse = 65.533\nsamples = 16\nvalue = 45.781", fillcolor="#e581398c"] ;
48 -> 52 ;
53 [label="mse = 38.323\nsamples = 9\nvalue = 40.478", fillcolor="#e581397a"] ;
52 -> 53 ;
54 [label="mse = 14.336\nsamples = 7\nvalue = 52.851", fillcolor="#e58139a6"] ;
52 -> 54 ;
55 [label="COARSE_AGGREGATE <= 946.9\nmse = 30.145\nsamples = 21\nvalue = 34.591", fillcolor="#e5813965"] ;
45 -> 55 ;
56 [label="mse = 12.957\nsamples = 5\nvalue = 28.332", fillcolor="#e581394e"] ;
55 -> 56 ;
57 [label="WATER <= 194.95\nmse = 16.973\nsamples = 16\nvalue = 36.867", fillcolor="#e581396d"] ;
55 -> 57 ;
58 [label="FLY_ASH <= 112.85\nmse = 10.484\nsamples = 12\nvalue = 38.314", fillcolor="#e5813972"] ;
57 -> 58 ;
59 [label="mse = 4.708\nsamples = 8\nvalue = 39.688", fillcolor="#e5813977"] ;
58 -> 59 ;
60 [label="mse = 8.936\nsamples = 4\nvalue = 35.016", fillcolor="#e5813966"] ;
58 -> 60 ;
61 [label="mse = 7.698\nsamples = 4\nvalue = 31.946", fillcolor="#e581395b"] ;
57 -> 61 ;
62 [label="BLAST_FURNACE_SLAG <= 170.1\nmse = 46.313\nsamples = 20\nvalue = 65.811", fillcolor="#e58139d4"] ;
44 -> 62 ;
63 [label="CEMENT <= 406.0\nmse = 18.321\nsamples = 16\nvalue = 63.272", fillcolor="#e58139cb"] ;
62 -> 63 ;
64 [label="mse = 15.587\nsamples = 8\nvalue = 60.861", fillcolor="#e58139c2"] ;
63 -> 64 ;
65 [label="mse = 9.426\nsamples = 8\nvalue = 65.683", fillcolor="#e58139d3"] ;
63 -> 65 ;
66 [label="mse = 1.16\nsamples = 4\nvalue = 78.0", fillcolor="#e58139ff"] ;
62 -> 66 ;
}