digraph Tree {
node [shape=box, style="filled", color="black"] ;
0 [label="AGE <= 42.0\nmse = 292.434\nsamples = 258\nvalue = 35.533", fillcolor="#e581396b"] ;
1 [label="CEMENT <= 313.5\nmse = 235.549\nsamples = 190\nvalue = 30.264", fillcolor="#e5813957"] ;
0 -> 1 [labeldistance=2.5, labelangle=45, headlabel="True"] ;
2 [label="AGE <= 10.5\nmse = 121.748\nsamples = 129\nvalue = 24.585", fillcolor="#e5813941"] ;
1 -> 2 ;
3 [label="WATER <= 157.45\nmse = 61.47\nsamples = 35\nvalue = 14.878", fillcolor="#e581391c"] ;
2 -> 3 ;
4 [label="mse = 102.883\nsamples = 4\nvalue = 27.903", fillcolor="#e581394e"] ;
3 -> 4 ;
5 [label="CEMENT <= 161.0\nmse = 13.677\nsamples = 31\nvalue = 12.329", fillcolor="#e5813912"] ;
3 -> 5 ;
6 [label="mse = 4.823\nsamples = 5\nvalue = 7.596", fillcolor="#e5813900"] ;
5 -> 6 ;
7 [label="FINE_AGGREGATE <= 850.3\nmse = 9.832\nsamples = 26\nvalue = 13.326", fillcolor="#e5813916"] ;
5 -> 7 ;
8 [label="mse = 8.389\nsamples = 21\nvalue = 14.01", fillcolor="#e5813919"] ;
7 -> 8 ;
9 [label="mse = 4.96\nsamples = 5\nvalue = 10.294", fillcolor="#e581390a"] ;
7 -> 9 ;
10 [label="FINE_AGGREGATE <= 804.95\nmse = 92.926\nsamples = 94\nvalue = 28.482", fillcolor="#e5813950"] ;
2 -> 10 ;
11 [label="BLAST_FURNACE_SLAG <= 49.9\nmse = 79.189\nsamples = 61\nvalue = 31.431", fillcolor="#e581395b"] ;
10 -> 11 ;
12 [label="CEMENT <= 295.9\nmse = 86.731\nsamples = 25\nvalue = 26.674", fillcolor="#e5813949"] ;
11 -> 12 ;
13 [label="mse = 47.118\nsamples = 20\nvalue = 23.106", fillcolor="#e581393b"] ;
12 -> 13 ;
14 [label="mse = 63.113\nsamples = 5\nvalue = 36.588", fillcolor="#e581396f"] ;
12 -> 14 ;
15 [label="BLAST_FURNACE_SLAG <= 196.75\nmse = 54.295\nsamples = 36\nvalue = 34.171", fillcolor="#e5813966"] ;
11 -> 15 ;
16 [label="mse = 49.966\nsamples = 30\nvalue = 32.861", fillcolor="#e5813961"] ;
15 -> 16 ;
17 [label="mse = 25.903\nsamples = 6\nvalue = 40.59", fillcolor="#e581397e"] ;
15 -> 17 ;
18 [label="CEMENT <= 237.05\nmse = 64.762\nsamples = 33\nvalue = 22.251", fillcolor="#e5813938"] ;
10 -> 18 ;
19 [label="COARSE_AGGREGATE <= 1005.95\nmse = 32.7\nsamples = 25\nvalue = 19.539", fillcolor="#e581392e"] ;
18 -> 19 ;
20 [label="mse = 22.993\nsamples = 21\nvalue = 18.257", fillcolor="#e5813929"] ;
19 -> 20 ;
21 [label="mse = 4.691\nsamples = 4\nvalue = 28.838", fillcolor="#e5813951"] ;
19 -> 21 ;
22 [label="mse = 72.685\nsamples = 8\nvalue = 30.387", fillcolor="#e5813957"] ;
18 -> 22 ;
23 [label="AGE <= 21.0\nmse = 275.498\nsamples = 61\nvalue = 40.85", fillcolor="#e581397f"] ;
1 -> 23 ;
24 [label="SUPERPLASTICIZER <= 4.45\nmse = 183.209\nsamples = 32\nvalue = 31.844", fillcolor="#e581395d"] ;
23 -> 24 ;
25 [label="FINE_AGGREGATE <= 756.0\nmse = 58.478\nsamples = 14\nvalue = 20.741", fillcolor="#e5813932"] ;
24 -> 25 ;
26 [label="mse = 59.888\nsamples = 4\nvalue = 29.258", fillcolor="#e5813953"] ;
25 -> 26 ;
27 [label="mse = 23.343\nsamples = 10\nvalue = 17.735", fillcolor="#e5813927"] ;
25 -> 27 ;
28 [label="AGE <= 5.0\nmse = 106.834\nsamples = 18\nvalue = 40.649", fillcolor="#e581397f"] ;
24 -> 28 ;
29 [label="mse = 20.351\nsamples = 7\nvalue = 32.662", fillcolor="#e5813960"] ;
28 -> 29 ;
30 [label="mse = 72.438\nsamples = 11\nvalue = 48.104", fillcolor="#e581399b"] ;
28 -> 30 ;
31 [label="WATER <= 176.45\nmse = 202.562\nsamples = 29\nvalue = 50.033", fillcolor="#e58139a2"] ;
23 -> 31 ;
32 [label="mse = 137.596\nsamples = 11\nvalue = 65.504", fillcolor="#e58139de"] ;
31 -> 32 ;
33 [label="BLAST_FURNACE_SLAG <= 72.5\nmse = 88.354\nsamples = 18\nvalue = 43.587", fillcolor="#e581398a"] ;
31 -> 33 ;
34 [label="mse = 38.022\nsamples = 11\nvalue = 37.73", fillcolor="#e5813973"] ;
33 -> 34 ;
35 [label="mse = 43.527\nsamples = 7\nvalue = 51.788", fillcolor="#e58139a9"] ;
33 -> 35 ;
36 [label="SUPERPLASTICIZER <= 10.85\nmse = 189.378\nsamples = 68\nvalue = 48.818", fillcolor="#e581399e"] ;
0 -> 36 [labeldistance=2.5, labelangle=-45, headlabel="False"] ;
37 [label="FINE_AGGREGATE <= 797.55\nmse = 113.685\nsamples = 50\nvalue = 43.414", fillcolor="#e5813989"] ;
36 -> 37 ;
38 [label="BLAST_FURNACE_SLAG <= 127.65\nmse = 82.979\nsamples = 31\nvalue = 48.523", fillcolor="#e581399d"] ;
37 -> 38 ;
39 [label="CEMENT <= 453.75\nmse = 71.422\nsamples = 23\nvalue = 52.022", fillcolor="#e58139aa"] ;
38 -> 39 ;
40 [label="COARSE_AGGREGATE <= 1039.2\nmse = 47.723\nsamples = 19\nvalue = 50.149", fillcolor="#e58139a3"] ;
39 -> 40 ;
41 [label="mse = 19.977\nsamples = 14\nvalue = 52.708", fillcolor="#e58139ad"] ;
40 -> 41 ;
42 [label="mse = 54.35\nsamples = 5\nvalue = 42.759", fillcolor="#e5813987"] ;
40 -> 42 ;
43 [label="mse = 69.863\nsamples = 4\nvalue = 62.947", fillcolor="#e58139d4"] ;
39 -> 43 ;
44 [label="mse = 10.108\nsamples = 8\nvalue = 40.084", fillcolor="#e581397c"] ;
38 -> 44 ;
45 [label="COARSE_AGGREGATE <= 976.0\nmse = 30.933\nsamples = 19\nvalue = 33.855", fillcolor="#e5813965"] ;
37 -> 45 ;
46 [label="mse = 19.749\nsamples = 11\nvalue = 30.194", fillcolor="#e5813957"] ;
45 -> 46 ;
47 [label="mse = 8.457\nsamples = 8\nvalue = 38.302", fillcolor="#e5813976"] ;
45 -> 47 ;
48 [label="SUPERPLASTICIZER <= 11.75\nmse = 42.117\nsamples = 18\nvalue = 65.995", fillcolor="#e58139e0"] ;
36 -> 48 ;
49 [label="mse = 13.199\nsamples = 4\nvalue = 74.2", fillcolor="#e58139ff"] ;
48 -> 49 ;
50 [label="FINE_AGGREGATE <= 888.05\nmse = 21.833\nsamples = 14\nvalue = 63.26", fillcolor="#e58139d5"] ;
48 -> 50 ;
51 [label="mse = 13.416\nsamples = 10\nvalue = 65.353", fillcolor="#e58139dd"] ;
50 -> 51 ;
52 [label="mse = 4.516\nsamples = 4\nvalue = 58.025", fillcolor="#e58139c1"] ;
50 -> 52 ;
}