digraph Tree {
node [shape=box, style="filled", color="black"] ;
0 [label="AGE <= 42.0\nmse = 290.875\nsamples = 412\nvalue = 35.967", fillcolor="#e581396c"] ;
1 [label="CEMENT <= 311.35\nmse = 236.283\nsamples = 291\nvalue = 30.585", fillcolor="#e5813956"] ;
0 -> 1 [labeldistance=2.5, labelangle=45, headlabel="True"] ;
2 [label="AGE <= 10.5\nmse = 129.547\nsamples = 195\nvalue = 25.236", fillcolor="#e5813940"] ;
1 -> 2 ;
3 [label="SUPERPLASTICIZER <= 8.65\nmse = 43.092\nsamples = 55\nvalue = 15.197", fillcolor="#e5813917"] ;
2 -> 3 ;
4 [label="FINE_AGGREGATE <= 726.05\nmse = 24.954\nsamples = 44\nvalue = 13.519", fillcolor="#e5813911"] ;
3 -> 4 ;
5 [label="mse = 23.784\nsamples = 10\nvalue = 18.576", fillcolor="#e5813925"] ;
4 -> 5 ;
6 [label="COARSE_AGGREGATE <= 972.6\nmse = 15.565\nsamples = 34\nvalue = 12.032", fillcolor="#e581390b"] ;
4 -> 6 ;
7 [label="mse = 12.374\nsamples = 14\nvalue = 9.408", fillcolor="#e5813900"] ;
6 -> 7 ;
8 [label="AGE <= 5.0\nmse = 9.604\nsamples = 20\nvalue = 13.869", fillcolor="#e5813912"] ;
6 -> 8 ;
9 [label="mse = 9.926\nsamples = 10\nvalue = 14.573", fillcolor="#e5813915"] ;
8 -> 9 ;
10 [label="mse = 8.291\nsamples = 10\nvalue = 13.165", fillcolor="#e581390f"] ;
8 -> 10 ;
11 [label="mse = 59.384\nsamples = 11\nvalue = 21.905", fillcolor="#e5813933"] ;
3 -> 11 ;
12 [label="CEMENT <= 212.55\nmse = 108.365\nsamples = 140\nvalue = 29.179", fillcolor="#e5813950"] ;
2 -> 12 ;
13 [label="BLAST_FURNACE_SLAG <= 6.8\nmse = 59.334\nsamples = 80\nvalue = 25.005", fillcolor="#e581393f"] ;
12 -> 13 ;
14 [label="CEMENT <= 164.6\nmse = 31.027\nsamples = 26\nvalue = 18.442", fillcolor="#e5813925"] ;
13 -> 14 ;
15 [label="mse = 6.015\nsamples = 13\nvalue = 14.192", fillcolor="#e5813913"] ;
14 -> 15 ;
16 [label="mse = 19.901\nsamples = 13\nvalue = 22.693", fillcolor="#e5813936"] ;
14 -> 16 ;
17 [label="CEMENT <= 155.3\nmse = 42.243\nsamples = 54\nvalue = 28.165", fillcolor="#e581394c"] ;
13 -> 17 ;
18 [label="CEMENT <= 144.85\nmse = 27.365\nsamples = 30\nvalue = 25.508", fillcolor="#e5813941"] ;
17 -> 18 ;
19 [label="mse = 22.458\nsamples = 12\nvalue = 27.444", fillcolor="#e5813949"] ;
18 -> 19 ;
20 [label="mse = 26.471\nsamples = 18\nvalue = 24.217", fillcolor="#e581393c"] ;
18 -> 20 ;
21 [label="SUPERPLASTICIZER <= 7.4\nmse = 40.99\nsamples = 24\nvalue = 31.485", fillcolor="#e581395a"] ;
17 -> 21 ;
22 [label="mse = 39.091\nsamples = 13\nvalue = 28.167", fillcolor="#e581394c"] ;
21 -> 22 ;
23 [label="mse = 14.839\nsamples = 11\nvalue = 35.407", fillcolor="#e581396a"] ;
21 -> 23 ;
24 [label="SUPERPLASTICIZER <= 6.8\nmse = 119.523\nsamples = 60\nvalue = 34.746", fillcolor="#e5813967"] ;
12 -> 24 ;
25 [label="BLAST_FURNACE_SLAG <= 7.5\nmse = 68.998\nsamples = 31\nvalue = 28.781", fillcolor="#e581394f"] ;
24 -> 25 ;
26 [label="mse = 18.771\nsamples = 19\nvalue = 23.862", fillcolor="#e581393b"] ;
25 -> 26 ;
27 [label="mse = 49.56\nsamples = 12\nvalue = 36.569", fillcolor="#e581396e"] ;
25 -> 27 ;
28 [label="COARSE_AGGREGATE <= 1004.2\nmse = 94.851\nsamples = 29\nvalue = 41.121", fillcolor="#e5813981"] ;
24 -> 28 ;
29 [label="mse = 40.899\nsamples = 19\nvalue = 37.502", fillcolor="#e5813972"] ;
28 -> 29 ;
30 [label="mse = 125.162\nsamples = 10\nvalue = 47.999", fillcolor="#e581399d"] ;
28 -> 30 ;
31 [label="AGE <= 21.0\nmse = 276.867\nsamples = 96\nvalue = 41.452", fillcolor="#e5813982"] ;
1 -> 31 ;
32 [label="SUPERPLASTICIZER <= 4.3\nmse = 158.829\nsamples = 48\nvalue = 31.497", fillcolor="#e581395a"] ;
31 -> 32 ;
33 [label="CEMENT <= 381.7\nmse = 90.771\nsamples = 21\nvalue = 22.978", fillcolor="#e5813937"] ;
32 -> 33 ;
34 [label="mse = 16.743\nsamples = 11\nvalue = 18.814", fillcolor="#e5813926"] ;
33 -> 34 ;
35 [label="mse = 132.15\nsamples = 10\nvalue = 27.558", fillcolor="#e581394a"] ;
33 -> 35 ;
36 [label="CEMENT <= 388.45\nmse = 111.398\nsamples = 27\nvalue = 38.124", fillcolor="#e5813975"] ;
32 -> 36 ;
37 [label="mse = 41.496\nsamples = 15\nvalue = 32.383", fillcolor="#e581395d"] ;
36 -> 37 ;
38 [label="mse = 106.078\nsamples = 12\nvalue = 45.3", fillcolor="#e5813992"] ;
36 -> 38 ;
39 [label="WATER <= 183.05\nmse = 196.705\nsamples = 48\nvalue = 51.407", fillcolor="#e58139aa"] ;
31 -> 39 ;
40 [label="CEMENT <= 355.5\nmse = 130.462\nsamples = 27\nvalue = 58.356", fillcolor="#e58139c7"] ;
39 -> 40 ;
41 [label="mse = 156.262\nsamples = 10\nvalue = 52.617", fillcolor="#e58139af"] ;
40 -> 41 ;
42 [label="mse = 84.512\nsamples = 17\nvalue = 61.732", fillcolor="#e58139d4"] ;
40 -> 42 ;
43 [label="SUPERPLASTICIZER <= 1.5\nmse = 139.956\nsamples = 21\nvalue = 42.472", fillcolor="#e5813986"] ;
39 -> 43 ;
44 [label="mse = 99.821\nsamples = 11\nvalue = 37.401", fillcolor="#e5813972"] ;
43 -> 44 ;
45 [label="mse = 124.692\nsamples = 10\nvalue = 48.051", fillcolor="#e581399d"] ;
43 -> 45 ;
46 [label="SUPERPLASTICIZER <= 10.85\nmse = 184.963\nsamples = 121\nvalue = 48.911", fillcolor="#e58139a0"] ;
0 -> 46 [labeldistance=2.5, labelangle=-45, headlabel="False"] ;
47 [label="FINE_AGGREGATE <= 757.15\nmse = 113.936\nsamples = 94\nvalue = 44.225", fillcolor="#e581398d"] ;
46 -> 47 ;
48 [label="WATER <= 190.5\nmse = 82.121\nsamples = 38\nvalue = 51.655", fillcolor="#e58139ab"] ;
47 -> 48 ;
49 [label="mse = 66.839\nsamples = 14\nvalue = 59.566", fillcolor="#e58139cc"] ;
48 -> 49 ;
50 [label="FINE_AGGREGATE <= 621.5\nmse = 33.24\nsamples = 24\nvalue = 47.041", fillcolor="#e5813999"] ;
48 -> 50 ;
51 [label="mse = 23.951\nsamples = 10\nvalue = 44.423", fillcolor="#e581398e"] ;
50 -> 51 ;
52 [label="mse = 31.483\nsamples = 14\nvalue = 48.911", fillcolor="#e58139a0"] ;
50 -> 52 ;
53 [label="SUPERPLASTICIZER <= 6.3\nmse = 72.639\nsamples = 56\nvalue = 39.183", fillcolor="#e5813979"] ;
47 -> 53 ;
54 [label="AGE <= 95.0\nmse = 26.613\nsamples = 35\nvalue = 35.331", fillcolor="#e5813969"] ;
53 -> 54 ;
55 [label="FINE_AGGREGATE <= 844.1\nmse = 19.388\nsamples = 22\nvalue = 33.262", fillcolor="#e5813961"] ;
54 -> 55 ;
56 [label="mse = 14.625\nsamples = 11\nvalue = 34.845", fillcolor="#e5813967"] ;
55 -> 56 ;
57 [label="mse = 19.137\nsamples = 11\nvalue = 31.679", fillcolor="#e581395a"] ;
55 -> 57 ;
58 [label="mse = 19.35\nsamples = 13\nvalue = 38.831", fillcolor="#e5813977"] ;
54 -> 58 ;
59 [label="FINE_AGGREGATE <= 799.2\nmse = 83.388\nsamples = 21\nvalue = 45.604", fillcolor="#e5813993"] ;
53 -> 59 ;
60 [label="mse = 121.835\nsamples = 11\nvalue = 49.028", fillcolor="#e58139a1"] ;
59 -> 60 ;
61 [label="mse = 14.009\nsamples = 10\nvalue = 41.837", fillcolor="#e5813984"] ;
59 -> 61 ;
62 [label="BLAST_FURNACE_SLAG <= 97.45\nmse = 89.619\nsamples = 27\nvalue = 65.226", fillcolor="#e58139e3"] ;
46 -> 62 ;
63 [label="mse = 54.539\nsamples = 14\nvalue = 58.706", fillcolor="#e58139c8"] ;
62 -> 63 ;
64 [label="mse = 32.331\nsamples = 13\nvalue = 72.247", fillcolor="#e58139ff"] ;
62 -> 64 ;
}