digraph Tree {
node [shape=box, style="filled", color="black"] ;
0 [label="AGE <= 42.0\nmse = 288.909\nsamples = 412\nvalue = 34.907", fillcolor="#e581396c"] ;
1 [label="CEMENT <= 257.7\nmse = 226.14\nsamples = 303\nvalue = 29.866", fillcolor="#e5813957"] ;
0 -> 1 [labeldistance=2.5, labelangle=45, headlabel="True"] ;
2 [label="AGE <= 10.5\nmse = 111.533\nsamples = 157\nvalue = 22.788", fillcolor="#e581393a"] ;
1 -> 2 ;
3 [label="COARSE_AGGREGATE <= 974.5\nmse = 22.198\nsamples = 44\nvalue = 11.873", fillcolor="#e581390c"] ;
2 -> 3 ;
4 [label="mse = 7.732\nsamples = 15\nvalue = 8.921", fillcolor="#e5813900"] ;
3 -> 4 ;
5 [label="CEMENT <= 170.65\nmse = 22.838\nsamples = 29\nvalue = 13.401", fillcolor="#e5813913"] ;
3 -> 5 ;
6 [label="mse = 17.174\nsamples = 10\nvalue = 10.811", fillcolor="#e5813908"] ;
5 -> 6 ;
7 [label="mse = 20.431\nsamples = 19\nvalue = 14.764", fillcolor="#e5813918"] ;
5 -> 7 ;
8 [label="WATER <= 156.2\nmse = 81.871\nsamples = 113\nvalue = 27.038", fillcolor="#e581394b"] ;
2 -> 8 ;
9 [label="mse = 91.791\nsamples = 10\nvalue = 38.443", fillcolor="#e581397b"] ;
8 -> 9 ;
10 [label="BLAST_FURNACE_SLAG <= 187.05\nmse = 67.053\nsamples = 103\nvalue = 25.931", fillcolor="#e5813947"] ;
8 -> 10 ;
11 [label="FLY_ASH <= 174.55\nmse = 54.126\nsamples = 90\nvalue = 24.411", fillcolor="#e5813940"] ;
10 -> 11 ;
12 [label="FINE_AGGREGATE <= 787.25\nmse = 48.051\nsamples = 79\nvalue = 25.544", fillcolor="#e5813945"] ;
11 -> 12 ;
13 [label="COARSE_AGGREGATE <= 1015.15\nmse = 43.924\nsamples = 40\nvalue = 28.096", fillcolor="#e5813950"] ;
12 -> 13 ;
14 [label="mse = 30.831\nsamples = 16\nvalue = 32.2", fillcolor="#e5813961"] ;
13 -> 14 ;
15 [label="CEMENT <= 213.65\nmse = 33.937\nsamples = 24\nvalue = 25.36", fillcolor="#e5813944"] ;
13 -> 15 ;
16 [label="mse = 22.618\nsamples = 10\nvalue = 23.229", fillcolor="#e581393b"] ;
15 -> 16 ;
17 [label="mse = 36.463\nsamples = 14\nvalue = 26.881", fillcolor="#e581394b"] ;
15 -> 17 ;
18 [label="WATER <= 174.6\nmse = 38.759\nsamples = 39\nvalue = 22.927", fillcolor="#e581393a"] ;
12 -> 18 ;
19 [label="mse = 22.45\nsamples = 15\nvalue = 27.058", fillcolor="#e581394b"] ;
18 -> 19 ;
20 [label="BLAST_FURNACE_SLAG <= 5.5\nmse = 31.624\nsamples = 24\nvalue = 20.346", fillcolor="#e581392f"] ;
18 -> 20 ;
21 [label="mse = 31.974\nsamples = 12\nvalue = 17.544", fillcolor="#e5813924"] ;
20 -> 21 ;
22 [label="mse = 15.575\nsamples = 12\nvalue = 23.147", fillcolor="#e581393b"] ;
20 -> 22 ;
23 [label="mse = 22.285\nsamples = 11\nvalue = 16.272", fillcolor="#e581391f"] ;
11 -> 23 ;
24 [label="mse = 29.889\nsamples = 13\nvalue = 36.451", fillcolor="#e5813972"] ;
10 -> 24 ;
25 [label="SUPERPLASTICIZER <= 1.25\nmse = 237.582\nsamples = 146\nvalue = 37.477", fillcolor="#e5813977"] ;
1 -> 25 ;
26 [label="CEMENT <= 395.0\nmse = 189.571\nsamples = 52\nvalue = 26.697", fillcolor="#e581394a"] ;
25 -> 26 ;
27 [label="AGE <= 10.5\nmse = 64.324\nsamples = 41\nvalue = 21.967", fillcolor="#e5813936"] ;
26 -> 27 ;
28 [label="AGE <= 5.0\nmse = 17.574\nsamples = 23\nvalue = 16.263", fillcolor="#e581391f"] ;
27 -> 28 ;
29 [label="mse = 11.06\nsamples = 10\nvalue = 13.529", fillcolor="#e5813913"] ;
28 -> 29 ;
30 [label="mse = 12.411\nsamples = 13\nvalue = 18.366", fillcolor="#e5813927"] ;
28 -> 30 ;
31 [label="mse = 29.364\nsamples = 18\nvalue = 29.256", fillcolor="#e5813954"] ;
27 -> 31 ;
32 [label="mse = 262.159\nsamples = 11\nvalue = 44.328", fillcolor="#e5813993"] ;
26 -> 32 ;
33 [label="AGE <= 5.0\nmse = 164.301\nsamples = 94\nvalue = 43.44", fillcolor="#e581398f"] ;
25 -> 33 ;
34 [label="mse = 44.526\nsamples = 19\nvalue = 29.502", fillcolor="#e5813955"] ;
33 -> 34 ;
35 [label="CEMENT <= 314.5\nmse = 132.958\nsamples = 75\nvalue = 46.971", fillcolor="#e581399e"] ;
33 -> 35 ;
36 [label="BLAST_FURNACE_SLAG <= 56.4\nmse = 64.784\nsamples = 34\nvalue = 39.983", fillcolor="#e5813981"] ;
35 -> 36 ;
37 [label="mse = 57.02\nsamples = 11\nvalue = 33.548", fillcolor="#e5813966"] ;
36 -> 37 ;
38 [label="FINE_AGGREGATE <= 751.75\nmse = 39.223\nsamples = 23\nvalue = 43.06", fillcolor="#e581398e"] ;
36 -> 38 ;
39 [label="mse = 37.448\nsamples = 12\nvalue = 39.982", fillcolor="#e5813981"] ;
38 -> 39 ;
40 [label="mse = 19.538\nsamples = 11\nvalue = 46.419", fillcolor="#e581399c"] ;
38 -> 40 ;
41 [label="FLY_ASH <= 39.5\nmse = 115.41\nsamples = 41\nvalue = 52.766", fillcolor="#e58139b6"] ;
35 -> 41 ;
42 [label="WATER <= 174.45\nmse = 104.609\nsamples = 30\nvalue = 55.877", fillcolor="#e58139c3"] ;
41 -> 42 ;
43 [label="mse = 111.844\nsamples = 18\nvalue = 59.211", fillcolor="#e58139d1"] ;
42 -> 43 ;
44 [label="mse = 52.076\nsamples = 12\nvalue = 50.876", fillcolor="#e58139ae"] ;
42 -> 44 ;
45 [label="mse = 46.529\nsamples = 11\nvalue = 44.284", fillcolor="#e5813993"] ;
41 -> 45 ;
46 [label="SUPERPLASTICIZER <= 10.25\nmse = 196.405\nsamples = 109\nvalue = 48.919", fillcolor="#e58139a6"] ;
0 -> 46 [labeldistance=2.5, labelangle=-45, headlabel="False"] ;
47 [label="FINE_AGGREGATE <= 796.2\nmse = 117.125\nsamples = 82\nvalue = 43.434", fillcolor="#e581398f"] ;
46 -> 47 ;
48 [label="CEMENT <= 378.0\nmse = 92.431\nsamples = 51\nvalue = 48.77", fillcolor="#e58139a6"] ;
47 -> 48 ;
49 [label="SUPERPLASTICIZER <= 6.1\nmse = 69.482\nsamples = 38\nvalue = 46.315", fillcolor="#e581399b"] ;
48 -> 49 ;
50 [label="CEMENT <= 251.75\nmse = 60.174\nsamples = 23\nvalue = 43.333", fillcolor="#e581398f"] ;
49 -> 50 ;
51 [label="mse = 42.79\nsamples = 11\nvalue = 40.245", fillcolor="#e5813982"] ;
50 -> 51 ;
52 [label="mse = 59.36\nsamples = 12\nvalue = 46.163", fillcolor="#e581399b"] ;
50 -> 52 ;
53 [label="mse = 49.221\nsamples = 15\nvalue = 50.887", fillcolor="#e58139ae"] ;
49 -> 53 ;
54 [label="mse = 90.37\nsamples = 13\nvalue = 55.948", fillcolor="#e58139c3"] ;
48 -> 54 ;
55 [label="COARSE_AGGREGATE <= 976.0\nmse = 33.836\nsamples = 31\nvalue = 34.655", fillcolor="#e581396b"] ;
47 -> 55 ;
56 [label="mse = 26.364\nsamples = 18\nvalue = 31.633", fillcolor="#e581395e"] ;
55 -> 56 ;
57 [label="mse = 14.032\nsamples = 13\nvalue = 38.839", fillcolor="#e581397c"] ;
55 -> 57 ;
58 [label="BLAST_FURNACE_SLAG <= 101.7\nmse = 68.275\nsamples = 27\nvalue = 65.579", fillcolor="#e58139eb"] ;
46 -> 58 ;
59 [label="mse = 40.168\nsamples = 13\nvalue = 60.487", fillcolor="#e58139d6"] ;
58 -> 59 ;
60 [label="mse = 47.948\nsamples = 14\nvalue = 70.306", fillcolor="#e58139ff"] ;
58 -> 60 ;
}